digraph Tree {
node [shape=box, style="filled, rounded", color="black", fontname="helvetica"] ;
edge [fontname="helvetica"] ;
0 [label="interactionTime <= 0.0\ngini = 0.5\nsamples = 408554\nvalue = [323029.18, 314311.03]", fillcolor="#fefcfa"] ;
1 [label="NumCart <= 0.06\ngini = 0.5\nsamples = 396969\nvalue = [314311.51, 269096.0]", fillcolor="#fbede3"] ;
0 -> 1 [labeldistance=2.5, labelangle=45, headlabel="True"] ;
2 [label="InsessionView <= 0.01\ngini = 0.5\nsamples = 381112\nvalue = [301527.3, 268844.2]", fillcolor="#fcf1ea"] ;
1 -> 2 ;
3 [label="gini = 0.0\nsamples = 4490\nvalue = [0.0, 252549.52]", fillcolor="#399de5"] ;
2 -> 3 ;
4 [label="interactionTime <= 0.0\ngini = 0.1\nsamples = 376622\nvalue = [301527.3, 16294.68]", fillcolor="#e68844"] ;
2 -> 4 ;
5 [label="NumView <= 0.06\ngini = 0.1\nsamples = 376407\nvalue = [301364.54, 16114.82]", fillcolor="#e68844"] ;
4 -> 5 ;
6 [label="gini = 0.0\nsamples = 294\nvalue = [0.0, 16114.82]", fillcolor="#399de5"] ;
5 -> 6 ;
7 [label="gini = -0.0\nsamples = 376113\nvalue = [301364.54, 0.0]", fillcolor="#e58139"] ;
5 -> 7 ;
8 [label="NumView <= 0.17\ngini = 0.5\nsamples = 215\nvalue = [162.76, 179.85]", fillcolor="#ecf6fd"] ;
4 -> 8 ;
9 [label="gini = 0.0\nsamples = 5\nvalue = [0.0, 179.85]", fillcolor="#399de5"] ;
8 -> 9 ;
10 [label="gini = 0.0\nsamples = 210\nvalue = [162.76, 0.0]", fillcolor="#e58139"] ;
8 -> 10 ;
11 [label="weekday <= 0.58\ngini = 0.04\nsamples = 15857\nvalue = [12784.2, 251.79]", fillcolor="#e6833d"] ;
1 -> 11 ;
12 [label="interactionTime <= 0.0\ngini = 0.07\nsamples = 5586\nvalue = [4542.14, 179.85]", fillcolor="#e68641"] ;
11 -> 12 ;
13 [label="gini = -0.0\nsamples = 5540\nvalue = [4506.14, 0.0]", fillcolor="#e58139"] ;
12 -> 13 ;
14 [label="NumCart <= 0.17\ngini = 0.28\nsamples = 46\nvalue = [36.0, 179.85]", fillcolor="#61b1ea"] ;
12 -> 14 ;
15 [label="gini = 0.24\nsamples = 38\nvalue = [29.92, 179.85]", fillcolor="#5aade9"] ;
14 -> 15 ;
16 [label="gini = -0.0\nsamples = 8\nvalue = [6.08, 0.0]", fillcolor="#e58139"] ;
14 -> 16 ;
17 [label="interactionTime <= 0.0\ngini = 0.02\nsamples = 10271\nvalue = [8242.07, 71.94]", fillcolor="#e5823b"] ;
11 -> 17 ;
18 [label="timeOfDay <= 0.08\ngini = 0.0\nsamples = 10229\nvalue = [8209.62, 0.0]", fillcolor="#e58139"] ;
17 -> 18 ;
19 [label="gini = 0.0\nsamples = 1365\nvalue = [1091.17, 0.0]", fillcolor="#e58139"] ;
18 -> 19 ;
20 [label="gini = 0.0\nsamples = 8864\nvalue = [7118.45, 0.0]", fillcolor="#e58139"] ;
18 -> 20 ;
21 [label="interactionTime <= 0.0\ngini = 0.43\nsamples = 42\nvalue = [32.45, 71.94]", fillcolor="#92c9f1"] ;
17 -> 21 ;
22 [label="gini = 0.34\nsamples = 27\nvalue = [19.77, 71.94]", fillcolor="#6fb8ec"] ;
21 -> 22 ;
23 [label="gini = 0.0\nsamples = 15\nvalue = [12.68, 0.0]", fillcolor="#e58139"] ;
21 -> 23 ;
24 [label="NumView <= 0.17\ngini = 0.27\nsamples = 11585\nvalue = [8717.68, 45215.03]", fillcolor="#5fb0ea"] ;
0 -> 24 [labeldistance=2.5, labelangle=-45, headlabel="False"] ;
25 [label="maxPrice <= 0.0\ngini = 0.07\nsamples = 2700\nvalue = [1611.4, 41761.86]", fillcolor="#41a1e6"] ;
24 -> 25 ;
26 [label="gini = 0.0\nsamples = 3\nvalue = [2.54, 0.0]", fillcolor="#e58139"] ;
25 -> 26 ;
27 [label="weekday <= 0.58\ngini = 0.07\nsamples = 2697\nvalue = [1608.86, 41761.86]", fillcolor="#41a1e6"] ;
25 -> 27 ;
28 [label="NumOfEventsInJourney <= 0.14\ngini = 0.06\nsamples = 1003\nvalue = [554.2, 18416.94]", fillcolor="#3fa0e6"] ;
27 -> 28 ;
29 [label="gini = 0.06\nsamples = 954\nvalue = [540.51, 16366.62]", fillcolor="#40a0e6"] ;
28 -> 29 ;
30 [label="gini = 0.01\nsamples = 49\nvalue = [13.69, 2050.32]", fillcolor="#3a9ee5"] ;
28 -> 30 ;
31 [label="NumCart <= 0.06\ngini = 0.08\nsamples = 1694\nvalue = [1054.66, 23344.91]", fillcolor="#42a1e6"] ;
27 -> 31 ;
32 [label="gini = 0.0\nsamples = 260\nvalue = [0.0, 15035.71]", fillcolor="#399de5"] ;
31 -> 32 ;
33 [label="gini = 0.2\nsamples = 1434\nvalue = [1054.66, 8309.21]", fillcolor="#52a9e8"] ;
31 -> 33 ;
34 [label="maxPrice <= 0.38\ngini = 0.44\nsamples = 8885\nvalue = [7106.28, 3453.18]", fillcolor="#f2be99"] ;
24 -> 34 ;
35 [label="NumCart <= 0.06\ngini = 0.43\nsamples = 8429\nvalue = [6723.46, 2985.56]", fillcolor="#f1b991"] ;
34 -> 35 ;
36 [label="interactionTime <= 0.04\ngini = 0.36\nsamples = 8221\nvalue = [6576.92, 2050.32]", fillcolor="#eda877"] ;
35 -> 36 ;
37 [label="gini = 0.16\nsamples = 5435\nvalue = [4357.57, 431.65]", fillcolor="#e88d4d"] ;
36 -> 37 ;
38 [label="gini = 0.49\nsamples = 2786\nvalue = [2219.35, 1618.68]", fillcolor="#f8ddc9"] ;
36 -> 38 ;
39 [label="NumOfEventsInJourney <= 0.23\ngini = 0.23\nsamples = 208\nvalue = [146.54, 935.24]", fillcolor="#58ace9"] ;
35 -> 39 ;
40 [label="gini = -0.0\nsamples = 159\nvalue = [125.75, 0.0]", fillcolor="#e58139"] ;
39 -> 40 ;
41 [label="gini = 0.04\nsamples = 49\nvalue = [20.79, 935.24]", fillcolor="#3d9fe6"] ;
39 -> 41 ;
42 [label="maxPrice <= 0.4\ngini = 0.5\nsamples = 456\nvalue = [382.82, 467.62]", fillcolor="#dbedfa"] ;
34 -> 42 ;
43 [label="NumOfEventsInJourney <= 0.14\ngini = 0.32\nsamples = 101\nvalue = [80.62, 323.74]", fillcolor="#6ab5eb"] ;
42 -> 43 ;
44 [label="gini = -0.0\nsamples = 75\nvalue = [62.37, 0.0]", fillcolor="#e58139"] ;
43 -> 44 ;
45 [label="gini = 0.1\nsamples = 26\nvalue = [18.25, 323.74]", fillcolor="#44a3e6"] ;
43 -> 45 ;
46 [label="timeOfDay <= 0.58\ngini = 0.44\nsamples = 355\nvalue = [302.2, 143.88]", fillcolor="#f1bd97"] ;
42 -> 46 ;
47 [label="gini = -0.0\nsamples = 187\nvalue = [165.3, 0.0]", fillcolor="#e58139"] ;
46 -> 47 ;
48 [label="gini = 0.5\nsamples = 168\nvalue = [136.9, 143.88]", fillcolor="#f5fafe"] ;
46 -> 48 ;
}